digraph Tree {
node [shape=box, style="filled, rounded", color="black", fontname="helvetica"] ;
edge [fontname="helvetica"] ;
0 [label="petal length (cm) <= 2.45\ngini = 0.67\nsamples = 100\nvalue = [34, 33, 33]\nclass = setosa", fillcolor="#fffdfc"] ;
1 [label="gini = 0.0\nsamples = 34\nvalue = [34, 0, 0]\nclass = setosa", fillcolor="#e58139"] ;
0 -> 1 [labeldistance=2.5, labelangle=45, headlabel="True"] ;
2 [label="petal length (cm) <= 4.85\ngini = 0.5\nsamples = 66\nvalue = [0, 33, 33]\nclass = versicolor", fillcolor="#ffffff"] ;
0 -> 2 [labeldistance=2.5, labelangle=-45, headlabel="False"] ;
3 [label="gini = 0.0\nsamples = 31\nvalue = [0, 31, 0]\nclass = versicolor", fillcolor="#39e581"] ;
2 -> 3 ;
4 [label="petal width (cm) <= 1.7\ngini = 0.11\nsamples = 35\nvalue = [0, 2, 33]\nclass = virginica", fillcolor="#8945e7"] ;
2 -> 4 ;
5 [label="petal length (cm) <= 4.95\ngini = 0.48\nsamples = 5\nvalue = [0, 2, 3]\nclass = virginica", fillcolor="#d5bdf6"] ;
4 -> 5 ;
6 [label="gini = 0.0\nsamples = 1\nvalue = [0, 1, 0]\nclass = versicolor", fillcolor="#39e581"] ;
5 -> 6 ;
7 [label="sepal length (cm) <= 6.15\ngini = 0.38\nsamples = 4\nvalue = [0, 1, 3]\nclass = virginica", fillcolor="#ab7bee"] ;
5 -> 7 ;
8 [label="petal length (cm) <= 5.05\ngini = 0.5\nsamples = 2\nvalue = [0, 1, 1]\nclass = versicolor", fillcolor="#ffffff"] ;
7 -> 8 ;
9 [label="gini = 0.0\nsamples = 1\nvalue = [0, 0, 1]\nclass = virginica", fillcolor="#8139e5"] ;
8 -> 9 ;
10 [label="gini = 0.0\nsamples = 1\nvalue = [0, 1, 0]\nclass = versicolor", fillcolor="#39e581"] ;
8 -> 10 ;
11 [label="gini = 0.0\nsamples = 2\nvalue = [0, 0, 2]\nclass = virginica", fillcolor="#8139e5"] ;
7 -> 11 ;
12 [label="gini = 0.0\nsamples = 30\nvalue = [0, 0, 30]\nclass = virginica", fillcolor="#8139e5"] ;
4 -> 12 ;
}